<?xml version="1.0"?>
<opencv_storage>
<cascade>
  <stageType>BOOST</stageType>
  <featureType>LBP</featureType>
  <height>24</height>
  <width>24</width>
  <stageParams>
    <boostType>GAB</boostType>
    <minHitRate>9.9500000476837158e-01</minHitRate>
    <maxFalseAlarm>5.0000000000000000e-01</maxFalseAlarm>
    <weightTrimRate>9.4999999999999996e-01</weightTrimRate>
    <maxDepth>1</maxDepth>
    <maxWeakCount>100</maxWeakCount></stageParams>
  <featureParams>
    <maxCatCount>256</maxCatCount>
    <featSize>1</featSize></featureParams>
  <stageNum>20</stageNum>
  <stages>
    <!-- stage 0 -->
    <_>
      <maxWeakCount>3</maxWeakCount>
      <stageThreshold>-9.1417598724365234e-01</stageThreshold>
      <weakClassifiers>
        <_>
          <internalNodes>
            0 -1 110 -766975784 -641085222 36888 1373491208 -1341619570
            -134217216 -1572822374 -70281077</internalNodes>
          <leafValues>
            -8.8584589958190918e-01 8.2410240173339844e-01</leafValues></_>
        <_>
          <internalNodes>
            0 -1 55 -248917816 -203833150 269090971 -573095797
            -509566552 -2147475456 -1555193206 17244170</internalNodes>
          <leafValues>
            -7.9580420255661011e-01 7.2762495279312134e-01</leafValues></_>
        <_>
          <internalNodes>
            0 -1 61 -212942464 -779767410 -268173312 -207241214
            -1332566908 268484612 -1043234678 -204776773</internalNodes>
          <leafValues>
            -7.0757639408111572e-01 7.6747411489486694e-01</leafValues></_></weakClassifiers></_>
    <!-- stage 1 -->
    <_>
      <maxWeakCount>5</maxWeakCount>
      <stageThreshold>-1.1885648965835571e+00</stageThreshold>
      <weakClassifiers>
        <_>
          <internalNodes>
            0 -1 107 -117641220 -34078722 -660668449 -67108930
            -353705985 -264257 -83951649 -1</internalNodes>
          <leafValues>
            -7.7512955665588379e-01 6.8461537361145020e-01</leafValues></_>
        <_>
          <internalNodes>
            0 -1 4 -134217745 -134348881 862795707 -23 -104861745
            -137577716 2143023055 73707337</internalNodes>
          <leafValues>
            -6.8703192472457886e-01 6.0709351301193237e-01</leafValues></_>
        <_>
          <internalNodes>
            0 -1 56 -4917328 -275252396 -84944908 -269559818 -140443718
            -66 -17137988 -1067013</internalNodes>
          <leafValues>
            -6.6668361425399780e-01 5.1891291141510010e-01</leafValues></_>
        <_>
          <internalNodes>
            0 -1 16 1895608828 -133671 476363676 -134655089 -148504577
            2004922822 1408289006 1397051852</internalNodes>
          <leafValues>
            -6.9866609573364258e-01 4.7573402523994446e-01</leafValues></_>
        <_>
          <internalNodes>
            0 -1 124 121112429 796209141 2080358399 -1163919369
            2143108957 -131073 -184321 1056448500</internalNodes>
          <leafValues>
            -7.1358162164688110e-01 4.6454623341560364e-01</leafValues></_></weakClassifiers></_>
    <!-- stage 2 -->
    <_>
      <maxWeakCount>4</maxWeakCount>
      <stageThreshold>-1.4169852733612061e+00</stageThreshold>
      <weakClassifiers>
        <_>
          <internalNodes>
            0 -1 67 -802168702 -72369246 2012444465 -3969229 -137363574
            -3147326 -213910149 -2097281</internalNodes>
          <leafValues>
            -7.2877246141433716e-01 7.4126702547073364e-01</leafValues></_>
        <_>
          <internalNodes>
            0 -1 99 -67573042 -777726262 37786274 -1080724626 -223038994
            -1529618 -101430369 -5259297</internalNodes>
          <leafValues>
            -6.6617602109909058e-01 6.4192527532577515e-01</leafValues></_>
        <_>
          <internalNodes>
            0 -1 58 -951192072 -249180170 419759376 -1727546490
            2103957178 -323698506 -1053036390 -1549950085</internalNodes>
          <leafValues>
            -6.5833616256713867e-01 5.9244769811630249e-01</leafValues></_>
        <_>
          <internalNodes>
            0 -1 73 805376016 353898545 -1097136747 1065564593
            1806372847 1033341465 1016740267 -1128395845</internalNodes>
          <leafValues>
            -5.9621071815490723e-01 6.3629937171936035e-01</leafValues></_></weakClassifiers></_>
    <!-- stage 3 -->
    <_>
      <maxWeakCount>5</maxWeakCount>
      <stageThreshold>-9.7505980730056763e-01</stageThreshold>
      <weakClassifiers>
        <_>
          <internalNodes>
            0 -1 95 -221282141 -1061634 -327160841 -536875009 -285219105
            -553652513 -1495273729 -1025</internalNodes>
          <leafValues>
            -5.9420287609100342e-01 6.8871593475341797e-01</leafValues></_>
        <_>
          <internalNodes>
            0 -1 5 -270467086 -1107435589 -100667393 -67260418
            1533042576 -9308254 -26870277 -835597</internalNodes>
          <leafValues>
            -6.5287864208221436e-01 5.1638948917388916e-01</leafValues></_>
        <_>
          <internalNodes>
            0 -1 102 2130574079 1393093744 -633024902 547320 -272826626
            -186846984 -280882 -1074812242</internalNodes>
          <leafValues>
            -5.8031713962554932e-01 5.1525312662124634e-01</leafValues></_>
        <_>
          <internalNodes>
            0 -1 20 -168765972 864945131 -134341400 -603981379 938463228
            43538444 -1082459153 464463307</internalNodes>
          <leafValues>
            -6.6920787096023560e-01 4.4857779145240784e-01</leafValues></_>
        <_>
          <internalNodes>
            0 -1 89 -33554948 -1481640097 1050152176 -1080520802
            2130001406 2113795831 481889278 1026231487</internalNodes>
          <leafValues>
            -6.5836817026138306e-01 4.2597645521163940e-01</leafValues></_></weakClassifiers></_>
    <!-- stage 4 -->
    <_>
      <maxWeakCount>6</maxWeakCount>
      <stageThreshold>-1.1369454860687256e+00</stageThreshold>
      <weakClassifiers>
        <_>
          <internalNodes>
            0 -1 47 52422639 -269504593 -134217729 -1 931135487
            -402653185 2013263351 -268435457</internalNodes>
          <leafValues>
            -5.6435197591781616e-01 6.4793765544891357e-01</leafValues></_>
        <_>
          <internalNodes>
            0 -1 74 800866301 -393219 -1 -65540 -393219 -327683 -197387
            -1495266300</internalNodes>
          <leafValues>
            -5.0703632831573486e-01 5.9565281867980957e-01</leafValues></_>
        <_>
          <internalNodes>
            0 -1 91 -928677825 -539518805 -805347329 -539129409
            -328234249 -322 -520499971 -907081557</internalNodes>
          <leafValues>
            -5.5110698938369751e-01 5.3821402788162231e-01</leafValues></_>
        <_>
          <internalNodes>
            0 -1 30 -541164033 -1276231812 2147307359 939269972 -2457601
            -19124866 -1614053889 -2405121</internalNodes>
          <leafValues>
            -4.5025959610939026e-01 6.1648148298263550e-01</leafValues></_>
        <_>
          <internalNodes>
            0 -1 60 1467846438 1860698055 -67163358 -17047554 2063070004
            1206746991 -201343680 -1040187479</internalNodes>
          <leafValues>
            -6.7044818401336670e-01 3.8819959759712219e-01</leafValues></_>
        <_>
          <internalNodes>
            0 -1 90 -1396896463 205012765 -16777361 -1073987587
            -805355553 -1074266113 -839434259 -1128383140</internalNodes>
          <leafValues>
            -5.0432765483856201e-01 5.4760980606079102e-01</leafValues></_></weakClassifiers></_>
    <!-- stage 5 -->
    <_>
      <maxWeakCount>7</maxWeakCount>
      <stageThreshold>-1.1159411668777466e+00</stageThreshold>
      <weakClassifiers>
        <_>
          <internalNodes>
            0 -1 87 -10485921 -2051 -570425473 -595592193 -2621617 -673
            729545695 1059057503</internalNodes>
          <leafValues>
            -6.3976794481277466e-01 5.1941746473312378e-01</leafValues></_>
        <_>
          <internalNodes>
            0 -1 70 2147352575 -201326594 1832516420 -6379014 -552012132
            -132356 358110740 -147462</internalNodes>
          <leafValues>
            -5.8117115497589111e-01 4.7837910056114197e-01</leafValues></_>
        <_>
          <internalNodes>
            0 -1 2 -282919425 -570120 2146958974 -268566542 -675557377
            -1081345 2010576630 2008442337</internalNodes>
          <leafValues>
            -5.5400872230529785e-01 4.4520106911659241e-01</leafValues></_>
        <_>
          <internalNodes>
            0 -1 103 2050944630 -1288776 297842672 1598881720 -573047923
            -648234052 -1092913161 -2343748</internalNodes>
          <leafValues>
            -6.9412988424301147e-01 3.4395006299018860e-01</leafValues></_>
        <_>
          <internalNodes>
            0 -1 77 372245877 -1082683913 2147434495 -1073790979
            2079801343 -16908289 -1073790977 -1078182404</internalNodes>
          <leafValues>
            -4.4732141494750977e-01 5.4814213514328003e-01</leafValues></_>
        <_>
          <internalNodes>
            0 -1 6 1440721838 -1242320962 872356863 -1073763878
            2147455743 809771746 -21106945 2012952299</internalNodes>
          <leafValues>
            -6.1195600032806396e-01 3.7205719947814941e-01</leafValues></_>
        <_>
          <internalNodes>
            0 -1 68 -264903936 -420551894 -428179934 -214368493
            1577058213 -883949594 -167906721 -991963281</internalNodes>
          <leafValues>
            -5.8547186851501465e-01 4.1774058341979980e-01</leafValues></_></weakClassifiers></_>
    <!-- stage 6 -->
    <_>
      <maxWeakCount>7</maxWeakCount>
      <stageThreshold>-9.5945918560028076e-01</stageThreshold>
      <weakClassifiers>
        <_>
          <internalNodes>
            0 -1 137 -2049 96189435 -67141637 1895170047 -33581928
            146399098 -8197 -1078198277</internalNodes>
          <leafValues>
            -5.1724135875701904e-01 6.2945365905761719e-01</leafValues></_>
        <_>
          <internalNodes>
            0 -1 94 -202405749 -68189032 -805314625 -681583657
            -352327425 -16393 -532676609 -10511809</internalNodes>
          <leafValues>
            -4.8544001579284668e-01 5.3462135791778564e-01</leafValues></_>
        <_>
          <internalNodes>
            0 -1 78 2146467821 -2662403 -67126275 -16419 -1610817539
            -100860180 -1247521 -1497365500</internalNodes>
          <leafValues>
            -4.6374171972274780e-01 4.9353796243667603e-01</leafValues></_>
        <_>
          <internalNodes>
            0 -1 41 -269488214 -321983254 -639650048 -788924521
            -169870581 1332477723 -138546749 1342177247</internalNodes>
          <leafValues>
            -6.3186770677566528e-01 3.7268239259719849e-01</leafValues></_>
        <_>
          <internalNodes>
            0 -1 63 -126362243 937416394 -639296003 -225 -1074208839
            -1327842496 -709871560 1026154303</internalNodes>
          <leafValues>
            -5.5139648914337158e-01 4.2124989628791809e-01</leafValues></_>
        <_>
          <internalNodes>
            0 -1 1 -280038813 1067332598 -558467 -273031213 -554208321
            -87577097 -538512649 1744000337</internalNodes>
          <leafValues>
            -5.4183423519134521e-01 3.9013698697090149e-01</leafValues></_>
        <_>
          <internalNodes>
            0 -1 98 -136314942 982776181 -302448818 573545939 2129868742
            1006493142 -1495785668 553612503</internalNodes>
          <leafValues>
            -6.2983494997024536e-01 3.6894035339355469e-01</leafValues></_></weakClassifiers></_>
    <!-- stage 7 -->
    <_>
      <maxWeakCount>8</maxWeakCount>
      <stageThreshold>-1.1024866104125977e+00</stageThreshold>
      <weakClassifiers>
        <_>
          <internalNodes>
            0 -1 46 -101385217 -1 871740415 2012870655 -262145 -2097713
            -67126273 -169885713</internalNodes>
          <leafValues>
            -4.8596751689910889e-01 6.5302425622940063e-01</leafValues></_>
        <_>
          <internalNodes>
            0 -1 123 -1086324738 -33612108 -168361986 -168173059
            -1078001668 -838992884 2147024382 -570571521</internalNodes>
          <leafValues>
            -4.8980259895324707e-01 4.9950575828552246e-01</leafValues></_>
        <_>
          <internalNodes>
            0 -1 34 -196993 -1207959553 -1615020033 -5194242 -1073986497
            -536904449 -1073758209 -1095033409</internalNodes>
          <leafValues>
            -3.8549765944480896e-01 5.9278869628906250e-01</leafValues></_>
        <_>
          <internalNodes>
            0 -1 3 1089391358 -2097921 -3408389 988753399 770297813
            -268435481 -71324417 1323582550</internalNodes>
          <leafValues>
            -6.1347550153732300e-01 3.3093720674514771e-01</leafValues></_>
        <_>
          <internalNodes>
            0 -1 69 -148097 -340869126 2147294532 -24928 1605418696
            -537346892 1058372829 -1073758533</internalNodes>
          <leafValues>
            -4.6470311284065247e-01 4.5761838555335999e-01</leafValues></_>
        <_>
          <internalNodes>
            0 -1 141 -1883590736 1071406965 1467939756 1039957981
            -1142203972 -1745263236 -1075965956 -57427</internalNodes>
          <leafValues>
            -4.7682175040245056e-01 4.4221928715705872e-01</leafValues></_>
        <_>
          <internalNodes>
            0 -1 14 -9455633 -1677722917 -352389406 -831520785
            2003957555 1999071079 -559241 -134760457</internalNodes>
          <leafValues>
            -3.9404577016830444e-01 5.4720944166183472e-01</leafValues></_>
        <_>
          <internalNodes>
            0 -1 57 858753792 -290472790 -738215115 -706740461 735818731
            -699794484 1037825022 -966791779</internalNodes>
          <leafValues>
            -5.7794791460037231e-01 3.7656438350677490e-01</leafValues></_></weakClassifiers></_>
    <!-- stage 8 -->
    <_>
      <maxWeakCount>8</maxWeakCount>
      <stageThreshold>-1.2996257543563843e+00</stageThreshold>
      <weakClassifiers>
        <_>
          <internalNodes>
            0 -1 106 -136839201 -131105 -1610622977 -1225719818 -180225
            -67108873 1073725439 855637887</internalNodes>
          <leafValues>
            -6.0599571466445923e-01 4.6865037083625793e-01</leafValues></_>
        <_>
          <internalNodes>
            0 -1 101 -1 1609349080 -1360228353 264543740 -10485858
            -1367495952 -67140902 -20806</internalNodes>
          <leafValues>
            -5.3590381145477295e-01 4.7769591212272644e-01</leafValues></_>
        <_>
          <internalNodes>
            0 -1 122 -269485106 -26214417 -2131171734 585889783
            -134755834 1736376159 -117507482 -251920538</internalNodes>
          <leafValues>
            -5.3504043817520142e-01 4.0984037518501282e-01</leafValues></_>
        <_>
          <internalNodes>
            0 -1 17 -67111169 1869508606 -1150058577 -172324609
            2120682751 2138136278 2004309975 -268994321</internalNodes>
          <leafValues>
            -4.2122542858123779e-01 5.1701551675796509e-01</leafValues></_>
        <_>
          <internalNodes>
            0 -1 84 -41959778 -182600782 -247950600 -1621049409
            1118144246 1531574520 -1915732514 -1230177</internalNodes>
          <leafValues>
            -4.3947079777717590e-01 4.9744105339050293e-01</leafValues></_>
        <_>
          <internalNodes>
            0 -1 12 -134217745 -806617105 -38270 -1363148817 2012689751
            2012739453 -202419437 -705169546</internalNodes>
          <leafValues>
            -3.9487090706825256e-01 5.4529112577438354e-01</leafValues></_>
        <_>
          <internalNodes>
            0 -1 71 859608508 929332989 2067480510 1005797373
            -1074233345 2147236973 526526846 1069428924</internalNodes>
          <leafValues>
            -6.6094028949737549e-01 3.4796679019927979e-01</leafValues></_>
        <_>
          <internalNodes>
            0 -1 28 -270147732 -1719279637 -715654787 1576511165
            447860624 -1145767714 -90982007 -35397751</internalNodes>
          <leafValues>
            -5.4844307899475098e-01 3.4667360782623291e-01</leafValues></_></weakClassifiers></_>
    <!-- stage 9 -->
    <_>
      <maxWeakCount>8</maxWeakCount>
      <stageThreshold>-1.2719151973724365e+00</stageThreshold>
      <weakClassifiers>
        <_>
          <internalNodes>
            0 -1 116 1173291263 1476385791 -263169 2136473567 -53505
            -50726145 -84418821 -10780673</internalNodes>
          <leafValues>
            -5.8485770225524902e-01 5.0561165809631348e-01</leafValues></_>
        <_>
          <internalNodes>
            0 -1 37 2013265901 -1096307 -156420829 -1196185 -536879473
            -35655697 2012137455 78540750</internalNodes>
          <leafValues>
            -5.8410817384719849e-01 4.0195450186729431e-01</leafValues></_>
        <_>
          <internalNodes>
            0 -1 49 -1707044 -919811 2086482133 -140116267 -35258372
            -1093600516 2071592685 -68036867</internalNodes>
          <leafValues>
            -5.7917344570159912e-01 3.8779038190841675e-01</leafValues></_>
        <_>
          <internalNodes>
            0 -1 144 -536875025 13102447 -286311770 1089196151
            -536912081 1088286589 -272640427 -2131755433</internalNodes>
          <leafValues>
            -4.0336841344833374e-01 5.5684489011764526e-01</leafValues></_>
        <_>
          <internalNodes>
            0 -1 32 -226617448 -1191701012 1073569533 -1140967948
            786985855 -1073856513 262701053 -16876801</internalNodes>
          <leafValues>
            -5.7470196485519409e-01 3.8355273008346558e-01</leafValues></_>
        <_>
          <internalNodes>
            0 -1 129 -1048593 -134482177 -1158287834 -673317425 -69873
            1199570791 -419435529 -135274497</internalNodes>
          <leafValues>
            -4.0450012683868408e-01 5.2888745069503784e-01</leafValues></_>
        <_>
          <internalNodes>
            0 -1 59 966009655 -613100100 835174478 2111820747 -236388353
            2001792452 2113798127 2144091288</internalNodes>
          <leafValues>
            -5.4593431949615479e-01 3.8338553905487061e-01</leafValues></_>
        <_>
          <internalNodes>
            0 -1 121 1432876271 2147188093 -100417 1895301113 -268438005
            -16777346 -43057729 -17699458</internalNodes>
          <leafValues>
            -3.7911835312843323e-01 5.1519572734832764e-01</leafValues></_></weakClassifiers></_>
    <!-- stage 10 -->
    <_>
      <maxWeakCount>8</maxWeakCount>
      <stageThreshold>-1.1072747707366943e+00</stageThreshold>
      <weakClassifiers>
        <_>
          <internalNodes>
            0 -1 39 -134744065 -1880105233 -2621441 -268443649 587153407
            -1880096769 1979088887 -1879048209</internalNodes>
          <leafValues>
            -5.1295572519302368e-01 5.5336093902587891e-01</leafValues></_>
        <_>
          <internalNodes>
            0 -1 81 1594612427 -536887297 -1049501185 -139984901
            -2495249 -1049894 -306200610 -406865158</internalNodes>
          <leafValues>
            -4.0355995297431946e-01 5.8813357353210449e-01</leafValues></_>
        <_>
          <internalNodes>
            0 -1 134 -1111752833 -1656750087 519827421 424145785
            524019216 1024717656 799313914 -1891893253</internalNodes>
          <leafValues>
            -4.7201853990554810e-01 4.8350352048873901e-01</leafValues></_>
        <_>
          <internalNodes>
            0 -1 66 -181345653 -1090540621 2143272789 -402784417
            -1238702117 -16782373 -11555890 -1349540101</internalNodes>
          <leafValues>
            -4.0234321355819702e-01 4.9108538031578064e-01</leafValues></_>
        <_>
          <internalNodes>
            0 -1 35 -156234179 -1078251538 -1073860737 -1074350209
            1316294015 -570458113 -1111509313 -1074327561</internalNodes>
          <leafValues>
            -4.4845163822174072e-01 4.5838692784309387e-01</leafValues></_>
        <_>
          <internalNodes>
            0 -1 128 -16782356 1090029132 -340000981 1882577647
            -42221747 1592699901 -710157083 1977347767</internalNodes>
          <leafValues>
            -5.6628024578094482e-01 3.7015530467033386e-01</leafValues></_>
        <_>
          <internalNodes>
            0 -1 64 1069030901 -67108915 -335596545 -131073 -539001857
            -8274 -196609 -1349768936</internalNodes>
          <leafValues>
            -4.3598049879074097e-01 4.5219963788986206e-01</leafValues></_>
        <_>
          <internalNodes>
            0 -1 52 1941429122 -2014466142 1107015543 -750912600
            1894742975 1154208935 935983099 1150934990</internalNodes>
          <leafValues>
            -5.9548425674438477e-01 3.3929637074470520e-01</leafValues></_></weakClassifiers></_>
    <!-- stage 11 -->
    <_>
      <maxWeakCount>7</maxWeakCount>
      <stageThreshold>-1.6427826881408691e+00</stageThreshold>
      <weakClassifiers>
        <_>
          <internalNodes>
            0 -1 130 -1073785772 1532972143 -67113473 -14721857
            -303310337 -1025 -25241377 -16066081</internalNodes>
          <leafValues>
            -6.0902255773544312e-01 3.9732804894447327e-01</leafValues></_>
        <_>
          <internalNodes>
            0 -1 119 -131079 -1077986373 -67281411 -4227585 -32769
            -1073741825 -38004228 -1073805570</internalNodes>
          <leafValues>
            -4.0323904156684875e-01 5.8618670701980591e-01</leafValues></_>
        <_>
          <internalNodes>
            0 -1 7 -552599561 -219152449 -134791245 -313370 2011168701
            2004416247 1995405174 1995929559</internalNodes>
          <leafValues>
            -5.4814529418945312e-01 4.1006943583488464e-01</leafValues></_>
        <_>
          <internalNodes>
            0 -1 132 -202392017 -269504532 -50344222 -17830170 -4339
            -1384382593 2130525652 -134217801</internalNodes>
          <leafValues>
            -4.2782595753669739e-01 5.1027703285217285e-01</leafValues></_>
        <_>
          <internalNodes>
            0 -1 15 -201596173 119726650 -1547470346 -276661141
            1987322575 1564546161 1918366704 1599569239</internalNodes>
          <leafValues>
            -5.6099194288253784e-01 3.8252535462379456e-01</leafValues></_>
        <_>
          <internalNodes>
            0 -1 83 -237528065 1502581136 -1241711636 -846873798
            -1876778562 2006817742 -152252417 -397381</internalNodes>
          <leafValues>
            -4.3162837624549866e-01 5.0276035070419312e-01</leafValues></_>
        <_>
          <internalNodes>
            0 -1 117 -603979830 2037348079 -1076570512 -1309189380
            2121959178 1597665744 -37653008 889151330</internalNodes>
          <leafValues>
            -6.2168633937835693e-01 3.3171984553337097e-01</leafValues></_></weakClassifiers></_>
    <!-- stage 12 -->
    <_>
      <maxWeakCount>9</maxWeakCount>
      <stageThreshold>-1.3582711219787598e+00</stageThreshold>
      <weakClassifiers>
        <_>
          <internalNodes>
            0 -1 50 -201367554 -537337858 -536887300 -131220 -135545350
            -1168049230 -345769985 -13500653</internalNodes>
          <leafValues>
            -5.8977240324020386e-01 4.0573459863662720e-01</leafValues></_>
        <_>
          <internalNodes>
            0 -1 40 -2311171 -2249731 872297407 -1098241 -2310145
            -169803860 -1073872897 -2113601</internalNodes>
          <leafValues>
            -3.7722155451774597e-01 5.9495252370834351e-01</leafValues></_>
        <_>
          <internalNodes>
            0 -1 44 -572635972 2147367932 2134734772 -8626308 210829052
            -8848388 1069088764 -1078296641</internalNodes>
          <leafValues>
            -5.2884858846664429e-01 3.7723511457443237e-01</leafValues></_>
        <_>
          <internalNodes>
            0 -1 13 -268436558 195735482 -35080350 -297250 1802955603
            792146770 1473507923 2002245979</internalNodes>
          <leafValues>
            -6.1716270446777344e-01 3.1138610839843750e-01</leafValues></_>
        <_>
          <internalNodes>
            0 -1 75 -20991683 -555745445 -13634177 -251701807 -539295779
            -71909409 -1426673089 544872979</internalNodes>
          <leafValues>
            -5.3840911388397217e-01 3.4640708565711975e-01</leafValues></_>
        <_>
          <internalNodes>
            0 -1 96 268936398 -1107314177 2135123895 -673189121
            -610407153 -1689490941 -67502083 -687473832</internalNodes>
          <leafValues>
            -6.1929214000701904e-01 2.5725132226943970e-01</leafValues></_>
        <_>
          <internalNodes>
            0 -1 93 -990452702 -268448650 -176293481 -692253 -1127285257
            -824871037 -1464013961 546393194</internalNodes>
          <leafValues>
            -5.8562982082366943e-01 3.2650932669639587e-01</leafValues></_>
        <_>
          <internalNodes>
            0 -1 125 -1651501647 431500954 -436355595 -1610747401
            -1111509795 -1073750018 -50645767 -1073989121</internalNodes>
          <leafValues>
            -4.3542557954788208e-01 4.2850109934806824e-01</leafValues></_>
        <_>
          <internalNodes>
            0 -1 29 -1969062422 -1343813973 -1684583405 -1351693642
            389076874 2007843487 465335433 39459005</internalNodes>
          <leafValues>
            -7.4357724189758301e-01 2.5619906187057495e-01</leafValues></_></weakClassifiers></_>
    <!-- stage 13 -->
    <_>
      <maxWeakCount>8</maxWeakCount>
      <stageThreshold>-1.4533352851867676e+00</stageThreshold>
      <weakClassifiers>
        <_>
          <internalNodes>
            0 -1 108 -201326625 872366069 -2097153 1426062271 -84173041
            -131234 -67371013 -162</internalNodes>
          <leafValues>
            -4.4331210851669312e-01 5.6917560100555420e-01</leafValues></_>
        <_>
          <internalNodes>
            0 -1 23 -327690 -405763 -1075806724 1060920820 -41628292
            -101729288 -8196 1593790031</internalNodes>
          <leafValues>
            -6.5202361345291138e-01 3.4007543325424194e-01</leafValues></_>
        <_>
          <internalNodes>
            0 -1 138 -1145311240 -1082384900 -1078149122 1609850325
            -1082130500 -4331547 -1080509442 -1077978147</internalNodes>
          <leafValues>
            -5.0849384069442749e-01 3.7226405739784241e-01</leafValues></_>
        <_>
          <internalNodes>
            0 -1 82 1393024014 -5509238 1968306623 -681320573
            -1342460210 -84159734 -2062569761 1188540346</internalNodes>
          <leafValues>
            -5.4688543081283569e-01 3.7042087316513062e-01</leafValues></_>
        <_>
          <internalNodes>
            0 -1 143 -1595947441 -260309643 -184549649 -285294723
            -33566753 -41 -16777490 -1063060532</internalNodes>
          <leafValues>
            -4.6585503220558167e-01 4.2786169052124023e-01</leafValues></_>
        <_>
          <internalNodes>
            0 -1 38 870251928 1073380621 1052768503 1064238652
            -135407992 -16842769 -11497848 530993560</internalNodes>
          <leafValues>
            -6.3400161266326904e-01 2.6195850968360901e-01</leafValues></_>
        <_>
          <internalNodes>
            0 -1 100 -545285914 426377407 -574745652 430463199 397410657
            534605533 -335128627 1006620383</internalNodes>
          <leafValues>
            -5.7484519481658936e-01 3.0115750432014465e-01</leafValues></_>
        <_>
          <internalNodes>
            0 -1 36 -2039991065 -1079052316 -4456457 -1052816 -835440691
            -1 -369688577 -1397084944</internalNodes>
          <leafValues>
            -3.7583869695663452e-01 4.8626571893692017e-01</leafValues></_></weakClassifiers></_>
    <!-- stage 14 -->
    <_>
      <maxWeakCount>8</maxWeakCount>
      <stageThreshold>-1.3341114521026611e+00</stageThreshold>
      <weakClassifiers>
        <_>
          <internalNodes>
            0 -1 45 864026623 -1097 -131073 -131331 872396799 -67109906
            1476392427 -805308931</internalNodes>
          <leafValues>
            -4.8124280571937561e-01 5.0427889823913574e-01</leafValues></_>
        <_>
          <internalNodes>
            0 -1 27 -674914842 -536871441 1874683754 1600126444 -6291537
            -1101217810 2078260974 1206515692</internalNodes>
          <leafValues>
            -6.2554675340652466e-01 3.1679907441139221e-01</leafValues></_>
        <_>
          <internalNodes>
            0 -1 0 -504891485 -3151873 -134219805 -18 -101320849
            1879048063 -16777353 -135792889</internalNodes>
          <leafValues>
            -3.5176080465316772e-01 5.6591069698333740e-01</leafValues></_>
        <_>
          <internalNodes>
            0 -1 118 -71647234 -140420 1903885246 1374747512 1071379422
            -579010900 333380602 -33686279</internalNodes>
          <leafValues>
            -6.0436028242111206e-01 3.3703634142875671e-01</leafValues></_>
        <_>
          <internalNodes>
            0 -1 136 -1829768261 92798383 -771796852 -790757381 -2118514
            89128703 -2098977 1105196759</internalNodes>
          <leafValues>
            -4.9508452415466309e-01 3.7293288111686707e-01</leafValues></_>
        <_>
          <internalNodes>
            0 -1 76 -561780830 -404502582 -135659552 -662608 796911526
            89866167 2003826629 -151132220</internalNodes>
          <leafValues>
            -5.1836627721786499e-01 3.2657191157341003e-01</leafValues></_>
        <_>
          <internalNodes>
            0 -1 115 466224465 -1647183879 -275994627 2017108856
            -136642674 -25955 -160243666 -1465372896</internalNodes>
          <leafValues>
            -4.3982768058776855e-01 4.0699881315231323e-01</leafValues></_>
        <_>
          <internalNodes>
            0 -1 140 -1145335940 -303229627 695138163 2002614093
            -1074012452 -906666204 -1750288386 -1350580777</internalNodes>
          <leafValues>
            -4.5043775439262390e-01 3.8441249728202820e-01</leafValues></_></weakClassifiers></_>
    <!-- stage 15 -->
    <_>
      <maxWeakCount>8</maxWeakCount>
      <stageThreshold>-1.5885550975799561e+00</stageThreshold>
      <weakClassifiers>
        <_>
          <internalNodes>
            0 -1 51 -34227207 -17473 872231423 -514 -4194305 -135201814
            2147352575 -2097153</internalNodes>
          <leafValues>
            -4.4314742088317871e-01 5.3931802511215210e-01</leafValues></_>
        <_>
          <internalNodes>
            0 -1 33 -402764612 -6004742 2147319805 -58884 -1349320705
            -805405457 1476196351 -536870913</internalNodes>
          <leafValues>
            -4.3048071861267090e-01 4.4645065069198608e-01</leafValues></_>
        <_>
          <internalNodes>
            0 -1 8 -521 -1073746005 -679478453 -4097 2000876370
            1073738743 2136470979 -526849</internalNodes>
          <leafValues>
            -3.2223570346832275e-01 5.7751965522766113e-01</leafValues></_>
        <_>
          <internalNodes>
            0 -1 111 1447813312 -554178581 620752085 801601505 -20992250
            -833884603 -301995289 -144441568</internalNodes>
          <leafValues>
            -6.2512892484664917e-01 2.7582773566246033e-01</leafValues></_>
        <_>
          <internalNodes>
            0 -1 21 715263224 1068945258 -348211217 1040108884 50529522
            1843658743 2121415423 1039603045</internalNodes>
          <leafValues>
            -6.6329127550125122e-01 2.5392973423004150e-01</leafValues></_>
        <_>
          <internalNodes>
            0 -1 126 -547338676 -1448854808 -809504773 -1315430
            -889500689 -19199330 166422651 1597652700</internalNodes>
          <leafValues>
            -6.5919810533523560e-01 2.6222506165504456e-01</leafValues></_>
        <_>
          <internalNodes>
            0 -1 85 498864312 1073539069 -27279364 -268763195 -77058643
            -304287809 -291747476 -2136470012</internalNodes>
          <leafValues>
            -5.9851950407028198e-01 2.5707450509071350e-01</leafValues></_>
        <_>
          <internalNodes>
            0 -1 62 -173709536 -850198805 -388077280 -203423745
            -89336249 1681833198 -33589940 -136314883</internalNodes>
          <leafValues>
            -5.8615422248840332e-01 2.9303669929504395e-01</leafValues></_></weakClassifiers></_>
    <!-- stage 16 -->
    <_>
      <maxWeakCount>9</maxWeakCount>
      <stageThreshold>-1.3372180461883545e+00</stageThreshold>
      <weakClassifiers>
        <_>
          <internalNodes>
            0 -1 131 -43564 -110217 -69300226 989360823 -1074988034
            -724239471 -1346392065 -37748737</internalNodes>
          <leafValues>
            -5.4334151744842529e-01 3.8693729043006897e-01</leafValues></_>
        <_>
          <internalNodes>
            0 -1 19 -2167041 -131606 -65537 -9306626 -9434371 -268898305
            -21430273 2142977519</internalNodes>
          <leafValues>
            -4.3878820538520813e-01 4.5631417632102966e-01</leafValues></_>
        <_>
          <internalNodes>
            0 -1 80 -1061961728 -136362239 -287309977 -806884604
            -21308998 -52443682 -1533546577 -1214776129</internalNodes>
          <leafValues>
            -5.2059960365295410e-01 3.7411043047904968e-01</leafValues></_>
        <_>
          <internalNodes>
            0 -1 127 -83896901 577760471 587041514 574619598 -139639
            2009489327 976187266 550039422</internalNodes>
          <leafValues>
            -6.5586054325103760e-01 2.6210844516754150e-01</leafValues></_>
        <_>
          <internalNodes>
            0 -1 10 -72368769 -67447553 2140972443 -642976806 1493412655
            1610050207 2033473023 1576530421</internalNodes>
          <leafValues>
            -4.3863537907600403e-01 3.8684654235839844e-01</leafValues></_>
        <_>
          <internalNodes>
            0 -1 42 -889991172 2134994879 -857976612 1587384056
            -1659507096 -11196572 2119991295 -302972944</internalNodes>
          <leafValues>
            -5.9196406602859497e-01 2.3971056938171387e-01</leafValues></_>
        <_>
          <internalNodes>
            0 -1 114 -53350960 749873722 838655484 -675493413 -347357192
            1006435754 -29844200 230555067</internalNodes>
          <leafValues>
            -6.0006833076477051e-01 3.0364081263542175e-01</leafValues></_>
        <_>
          <internalNodes>
            0 -1 92 -1478913901 -76035820 -483344449 -606430377
            1854393974 -38092802 -84541697 -279635777</internalNodes>
          <leafValues>
            -4.1184073686599731e-01 3.7397718429565430e-01</leafValues></_>
        <_>
          <internalNodes>
            0 -1 113 2130623312 -620798098 -1019284880 289207085
            936356716 1532857758 -1745682542 2147344174</internalNodes>
          <leafValues>
            -5.9169536828994751e-01 2.8118526935577393e-01</leafValues></_></weakClassifiers></_>
    <!-- stage 17 -->
    <_>
      <maxWeakCount>10</maxWeakCount>
      <stageThreshold>-1.7037192583084106e+00</stageThreshold>
      <weakClassifiers>
        <_>
          <internalNodes>
            0 -1 22 -537853965 -830209 -339805825 -2111377 1139144379
            -545029 -268444193 -35288189</internalNodes>
          <leafValues>
            -4.7310805320739746e-01 4.5118254423141479e-01</leafValues></_>
        <_>
          <internalNodes>
            0 -1 120 1468003327 2013262847 -134285313 1920057273
            -135270641 -65794 -553648257 -9044610</internalNodes>
          <leafValues>
            -3.8148701190948486e-01 4.8767814040184021e-01</leafValues></_>
        <_>
          <internalNodes>
            0 -1 79 -67111203 -715182209 -1073872897 -621019965
            -1097072978 -67117317 -18949398 846723859</internalNodes>
          <leafValues>
            -4.7207319736480713e-01 3.7846499681472778e-01</leafValues></_>
        <_>
          <internalNodes>
            0 -1 48 1461708687 -840193267 -33890440 -234883715
            -201850885 1408630547 1945851883 1274805579</internalNodes>
          <leafValues>
            -4.8020118474960327e-01 3.4756827354431152e-01</leafValues></_>
        <_>
          <internalNodes>
            0 -1 145 -654342962 701414 -1134582048 8364028 519298822
            824735388 2147282896 1644092766</internalNodes>
          <leafValues>
            -5.5014109611511230e-01 2.9890105128288269e-01</leafValues></_>
        <_>
          <internalNodes>
            0 -1 88 -69731006 716933763 1256846666 -299369614 1595867627
            1458855927 1595820344 1995961975</internalNodes>
          <leafValues>
            -6.1611211299896240e-01 1.9676683843135834e-01</leafValues></_>
        <_>
          <internalNodes>
            0 -1 105 -1631724368 -1891820103 -35654155 -831367
            -287278658 1073332207 -1108124323 -1073801364</internalNodes>
          <leafValues>
            -4.4939181208610535e-01 3.2447919249534607e-01</leafValues></_>
        <_>
          <internalNodes>
            0 -1 25 1059519889 -1516357419 1469579127 1003383922
            -77332566 -1145123377 -1107235190 187843912</internalNodes>
          <leafValues>
            -5.3954076766967773e-01 2.9470059275627136e-01</leafValues></_>
        <_>
          <internalNodes>
            0 -1 53 -1717839798 -42821794 -63459004 1987157706
            1072330341 -1611992737 1605948703 -969375623</internalNodes>
          <leafValues>
            -4.6350613236427307e-01 3.4364300966262817e-01</leafValues></_>
        <_>
          <internalNodes>
            0 -1 54 -302538020 -1677852930 2100152316 522156030
            -842470410 -832294662 -602619660 791719934</internalNodes>
          <leafValues>
            -6.3417339324951172e-01 2.0938283205032349e-01</leafValues></_></weakClassifiers></_>
    <!-- stage 18 -->
    <_>
      <maxWeakCount>9</maxWeakCount>
      <stageThreshold>-1.4483700990676880e+00</stageThreshold>
      <weakClassifiers>
        <_>
          <internalNodes>
            0 -1 65 -541359621 -558396488 -537001985 -672815625 -7690499
            -33634817 -15603969 -1081398273</internalNodes>
          <leafValues>
            -4.7868934273719788e-01 4.1935482621192932e-01</leafValues></_>
        <_>
          <internalNodes>
            0 -1 104 2080308154 -631318754 -67116141 1364049919
            -235084392 -539188262 -431110 -808453634</internalNodes>
          <leafValues>
            -4.7164282202720642e-01 3.9102315902709961e-01</leafValues></_>
        <_>
          <internalNodes>
            0 -1 142 -1073785507 492371805 -1092633609 2045769198
            1006354366 1005598940 1065384957 -8717445</internalNodes>
          <leafValues>
            -4.4181394577026367e-01 3.8282462954521179e-01</leafValues></_>
        <_>
          <internalNodes>
            0 -1 11 -67678 -276316534 -814747078 -1141052634 2138109762
            2121755444 2012455152 1979696634</internalNodes>
          <leafValues>
            -6.1122566461563110e-01 2.5820413231849670e-01</leafValues></_>
        <_>
          <internalNodes>
            0 -1 109 -1063075678 -1140123393 -422384627 -442283841
            1789060714 -2230473 -861474901 -455872705</internalNodes>
          <leafValues>
            -5.3465926647186279e-01 2.8469681739807129e-01</leafValues></_>
        <_>
          <internalNodes>
            0 -1 72 397417973 1073691615 -1090519681 1006583755
            259923198 -5662727 1001987833 788279291</internalNodes>
          <leafValues>
            -6.5467053651809692e-01 1.8555930256843567e-01</leafValues></_>
        <_>
          <internalNodes>
            0 -1 112 -94573972 2072810467 1255992044 1666012024 -678966
            1061255622 -283248870 2051227059</internalNodes>
          <leafValues>
            -6.4245176315307617e-01 2.5408840179443359e-01</leafValues></_>
        <_>
          <internalNodes>
            0 -1 135 -567012829 859568691 1475867327 -235749451
            -88293923 -4206149 -34310145 884659323</internalNodes>
          <leafValues>
            -4.7866910696029663e-01 3.0932909250259399e-01</leafValues></_>
        <_>
          <internalNodes>
            0 -1 43 1175773094 -15931403 -687141475 -1645035521
            -338497614 454581756 1961352189 1380851915</internalNodes>
          <leafValues>
            -5.3024971485137939e-01 2.8654605150222778e-01</leafValues></_></weakClassifiers></_>
    <!-- stage 19 -->
    <_>
      <maxWeakCount>10</maxWeakCount>
      <stageThreshold>-1.6088865995407104e+00</stageThreshold>
      <weakClassifiers>
        <_>
          <internalNodes>
            0 -1 139 -1155860612 -4196579 -1610812065 -10520737
            -1140916226 -4460806 -1149700102 -8650753</internalNodes>
          <leafValues>
            -4.8368868231773376e-01 3.8342112302780151e-01</leafValues></_>
        <_>
          <internalNodes>
            0 -1 84 -209734694 -140660326 -709045571 -572145681
            -69893378 458090748 -572738193 -67249153</internalNodes>
          <leafValues>
            -4.6023523807525635e-01 3.7485462427139282e-01</leafValues></_>
        <_>
          <internalNodes>
            0 -1 26 -47186049 -4195478 -2099201 -1073749663 -822739201
            -5 -1090519825 -1392565083</internalNodes>
          <leafValues>
            -3.3553656935691833e-01 4.8223009705543518e-01</leafValues></_>
        <_>
          <internalNodes>
            0 -1 133 268390862 792442331 -1346371738 2071678967
            -1170543618 -805306379 780793983 -348467341</internalNodes>
          <leafValues>
            -3.7672218680381775e-01 4.1925698518753052e-01</leafValues></_>
        <_>
          <internalNodes>
            0 -1 86 -598832993 1030141399 -212729861 -1631207849
            -77602057 997914615 -155321089 -10546595</internalNodes>
          <leafValues>
            -4.0731364488601685e-01 3.6018916964530945e-01</leafValues></_>
        <_>
          <internalNodes>
            0 -1 31 2053242608 -242957844 -389509904 527763672 980450160
            1739492798 -134349859 -1410206102</internalNodes>
          <leafValues>
            -5.2986860275268555e-01 3.0281606316566467e-01</leafValues></_>
        <_>
          <internalNodes>
            0 -1 18 -135153668 -1934355 -175074134 -78652569 -1076035780
            1964022920 -2245857 1430964680</internalNodes>
          <leafValues>
            -5.8157837390899658e-01 2.4743698537349701e-01</leafValues></_>
        <_>
          <internalNodes>
            0 -1 24 -1288687555 1073184152 -2134973217 810554050
            -9670085 2067753855 1596070655 913706172</internalNodes>
          <leafValues>
            -5.7898730039596558e-01 2.1464672684669495e-01</leafValues></_>
        <_>
          <internalNodes>
            0 -1 97 -1036524798 -1229555076 -390184994 -1222394879
            -361270414 -1398286010 -358687804 817321798</internalNodes>
          <leafValues>
            -5.6544131040573120e-01 2.6377138495445251e-01</leafValues></_>
        <_>
          <internalNodes>
            0 -1 9 -76743169 -55079178 1651421772 -1402144009 1148675158
            2121496443 1999599221 1148483429</internalNodes>
          <leafValues>
            -6.1561053991317749e-01 1.9292420148849487e-01</leafValues></_></weakClassifiers></_></stages>
  <features>
    <_>
      <rect>
        0 0 1 5</rect></_>
    <_>
      <rect>
        0 0 2 5</rect></_>
    <_>
      <rect>
        0 0 5 2</rect></_>
    <_>
      <rect>
        0 0 6 4</rect></_>
    <_>
      <rect>
        0 0 8 3</rect></_>
    <_>
      <rect>
        0 2 6 7</rect></_>
    <_>
      <rect>
        0 2 8 6</rect></_>
    <_>
      <rect>
        0 3 4 2</rect></_>
    <_>
      <rect>
        0 4 3 5</rect></_>
    <_>
      <rect>
        0 5 2 2</rect></_>
    <_>
      <rect>
        0 5 2 6</rect></_>
    <_>
      <rect>
        0 5 3 4</rect></_>
    <_>
      <rect>
        0 7 1 3</rect></_>
    <_>
      <rect>
        0 8 3 4</rect></_>
    <_>
      <rect>
        0 10 1 2</rect></_>
    <_>
      <rect>
        0 11 2 3</rect></_>
    <_>
      <rect>
        0 11 8 4</rect></_>
    <_>
      <rect>
        0 13 2 3</rect></_>
    <_>
      <rect>
        0 17 8 2</rect></_>
    <_>
      <rect>
        0 18 5 2</rect></_>
    <_>
      <rect>
        0 18 8 2</rect></_>
    <_>
      <rect>
        0 21 6 1</rect></_>
    <_>
      <rect>
        1 5 6 6</rect></_>
    <_>
      <rect>
        1 12 4 4</rect></_>
    <_>
      <rect>
        1 21 3 1</rect></_>
    <_>
      <rect>
        2 0 2 6</rect></_>
    <_>
      <rect>
        2 0 3 2</rect></_>
    <_>
      <rect>
        2 0 7 4</rect></_>
    <_>
      <rect>
        2 1 4 7</rect></_>
    <_>
      <rect>
        2 5 2 5</rect></_>
    <_>
      <rect>
        2 12 2 4</rect></_>
    <_>
      <rect>
        2 12 4 2</rect></_>
    <_>
      <rect>
        2 15 1 3</rect></_>
    <_>
      <rect>
        2 16 1 2</rect></_>
    <_>
      <rect>
        2 18 3 2</rect></_>
    <_>
      <rect>
        2 21 4 1</rect></_>
    <_>
      <rect>
        3 0 3 1</rect></_>
    <_>
      <rect>
        3 0 7 2</rect></_>
    <_>
      <rect>
        3 1 2 6</rect></_>
    <_>
      <rect>
        3 3 3 3</rect></_>
    <_>
      <rect>
        3 3 6 5</rect></_>
    <_>
      <rect>
        3 9 2 2</rect></_>
    <_>
      <rect>
        3 11 3 3</rect></_>
    <_>
      <rect>
        3 13 6 3</rect></_>
    <_>
      <rect>
        3 17 1 2</rect></_>
    <_>
      <rect>
        4 3 2 4</rect></_>
    <_>
      <rect>
        4 4 5 5</rect></_>
    <_>
      <rect>
        4 5 2 3</rect></_>
    <_>
      <rect>
        4 8 2 2</rect></_>
    <_>
      <rect>
        4 8 3 4</rect></_>
    <_>
      <rect>
        4 10 2 4</rect></_>
    <_>
      <rect>
        5 3 5 5</rect></_>
    <_>
      <rect>
        5 6 2 3</rect></_>
    <_>
      <rect>
        5 8 1 2</rect></_>
    <_>
      <rect>
        5 9 2 4</rect></_>
    <_>
      <rect>
        6 0 4 4</rect></_>
    <_>
      <rect>
        6 3 2 6</rect></_>
    <_>
      <rect>
        6 4 2 3</rect></_>
    <_>
      <rect>
        6 6 2 5</rect></_>
    <_>
      <rect>
        6 9 4 4</rect></_>
    <_>
      <rect>
        6 10 2 1</rect></_>
    <_>
      <rect>
        6 10 2 2</rect></_>
    <_>
      <rect>
        6 11 2 1</rect></_>
    <_>
      <rect>
        6 12 6 4</rect></_>
    <_>
      <rect>
        7 0 1 1</rect></_>
    <_>
      <rect>
        7 1 2 4</rect></_>
    <_>
      <rect>
        7 2 2 4</rect></_>
    <_>
      <rect>
        7 5 2 3</rect></_>
    <_>
      <rect>
        7 6 2 2</rect></_>
    <_>
      <rect>
        7 9 2 5</rect></_>
    <_>
      <rect>
        7 10 2 4</rect></_>
    <_>
      <rect>
        7 18 4 2</rect></_>
    <_>
      <rect>
        7 21 1 1</rect></_>
    <_>
      <rect>
        7 21 5 1</rect></_>
    <_>
      <rect>
        8 0 2 1</rect></_>
    <_>
      <rect>
        8 0 5 2</rect></_>
    <_>
      <rect>
        8 8 1 1</rect></_>
    <_>
      <rect>
        8 21 2 1</rect></_>
    <_>
      <rect>
        9 0 2 1</rect></_>
    <_>
      <rect>
        9 0 5 2</rect></_>
    <_>
      <rect>
        9 2 1 4</rect></_>
    <_>
      <rect>
        9 4 2 3</rect></_>
    <_>
      <rect>
        9 5 2 3</rect></_>
    <_>
      <rect>
        9 11 2 3</rect></_>
    <_>
      <rect>
        9 12 2 2</rect></_>
    <_>
      <rect>
        10 0 2 1</rect></_>
    <_>
      <rect>
        10 0 3 5</rect></_>
    <_>
      <rect>
        10 0 4 4</rect></_>
    <_>
      <rect>
        10 9 1 2</rect></_>
    <_>
      <rect>
        10 12 4 4</rect></_>
    <_>
      <rect>
        10 21 4 1</rect></_>
    <_>
      <rect>
        11 0 2 5</rect></_>
    <_>
      <rect>
        11 1 2 4</rect></_>
    <_>
      <rect>
        11 2 1 5</rect></_>
    <_>
      <rect>
        11 2 2 4</rect></_>
    <_>
      <rect>
        11 3 2 4</rect></_>
    <_>
      <rect>
        11 5 3 3</rect></_>
    <_>
      <rect>
        11 6 1 3</rect></_>
    <_>
      <rect>
        11 7 1 3</rect></_>
    <_>
      <rect>
        11 7 3 4</rect></_>
    <_>
      <rect>
        11 9 1 3</rect></_>
    <_>
      <rect>
        11 9 2 5</rect></_>
    <_>
      <rect>
        11 10 2 4</rect></_>
    <_>
      <rect>
        11 10 3 3</rect></_>
    <_>
      <rect>
        11 12 2 2</rect></_>
    <_>
      <rect>
        11 18 4 2</rect></_>
    <_>
      <rect>
        12 0 4 4</rect></_>
    <_>
      <rect>
        12 2 2 7</rect></_>
    <_>
      <rect>
        12 2 3 4</rect></_>
    <_>
      <rect>
        12 4 1 3</rect></_>
    <_>
      <rect>
        12 5 2 5</rect></_>
    <_>
      <rect>
        12 7 2 2</rect></_>
    <_>
      <rect>
        12 8 2 3</rect></_>
    <_>
      <rect>
        12 12 2 2</rect></_>
    <_>
      <rect>
        12 15 4 3</rect></_>
    <_>
      <rect>
        13 0 3 1</rect></_>
    <_>
      <rect>
        13 3 2 4</rect></_>
    <_>
      <rect>
        13 8 3 3</rect></_>
    <_>
      <rect>
        13 9 2 4</rect></_>
    <_>
      <rect>
        13 18 3 2</rect></_>
    <_>
      <rect>
        14 5 2 3</rect></_>
    <_>
      <rect>
        14 6 2 2</rect></_>
    <_>
      <rect>
        14 9 1 1</rect></_>
    <_>
      <rect>
        14 10 2 4</rect></_>
    <_>
      <rect>
        14 21 1 1</rect></_>
    <_>
      <rect>
        14 21 2 1</rect></_>
    <_>
      <rect>
        15 3 2 5</rect></_>
    <_>
      <rect>
        15 4 3 2</rect></_>
    <_>
      <rect>
        15 5 3 4</rect></_>
    <_>
      <rect>
        15 10 1 1</rect></_>
    <_>
      <rect>
        16 6 2 5</rect></_>
    <_>
      <rect>
        16 9 1 3</rect></_>
    <_>
      <rect>
        16 12 1 1</rect></_>
    <_>
      <rect>
        17 10 1 2</rect></_>
    <_>
      <rect>
        17 13 2 3</rect></_>
    <_>
      <rect>
        18 0 2 3</rect></_>
    <_>
      <rect>
        18 13 2 2</rect></_>
    <_>
      <rect>
        18 13 2 3</rect></_>
    <_>
      <rect>
        18 17 1 2</rect></_>
    <_>
      <rect>
        19 14 1 3</rect></_>
    <_>
      <rect>
        19 16 1 2</rect></_>
    <_>
      <rect>
        19 17 1 2</rect></_>
    <_>
      <rect>
        20 11 1 4</rect></_>
    <_>
      <rect>
        21 0 1 5</rect></_>
    <_>
      <rect>
        21 7 1 3</rect></_>
    <_>
      <rect>
        21 10 1 4</rect></_></features></cascade>
</opencv_storage>
